<?xml version="1.0"?>
<opencv_storage>
<stage0>
  <maxWeakCount>10</maxWeakCount>
  <stageThreshold>-1.0074551105499268e+00</stageThreshold>
  <weakClassifiers>
    <_>
      <internalNodes>
        0 -1 67144 3.1491301953792572e-02</internalNodes>
      <leafValues>
        -3.5820895433425903e-01 7.8855139017105103e-01</leafValues></_>
    <_>
      <internalNodes>
        0 -1 153232 8.5928319022059441e-03</internalNodes>
      <leafValues>
        -1.9534730911254883e-01 7.2038024663925171e-01</leafValues></_>
    <_>
      <internalNodes>
        0 -1 93261 1.2112833559513092e-02</internalNodes>
      <leafValues>
        -2.5803455710411072e-01 6.1161190271377563e-01</leafValues></_>
    <_>
      <internalNodes>
        0 -1 71389 4.8785142600536346e-02</internalNodes>
      <leafValues>
        -2.4128916859626770e-01 6.8463343381881714e-01</leafValues></_>
    <_>
      <internalNodes>
        0 -1 62700 -1.5421850606799126e-02</internalNodes>
      <leafValues>
        5.8619260787963867e-01 -2.4345475435256958e-01</leafValues></_>
    <_>
      <internalNodes>
        0 -1 30988 4.0055587887763977e-03</internalNodes>
      <leafValues>
        -1.7065723240375519e-01 6.1546123027801514e-01</leafValues></_>
    <_>
      <internalNodes>
        0 -1 7521 -1.2218618765473366e-02</internalNodes>
      <leafValues>
        7.5941455364227295e-01 -1.6076685488224030e-01</leafValues></_>
    <_>
      <internalNodes>
        0 -1 143983 -4.3646139092743397e-03</internalNodes>
      <leafValues>
        5.6282371282577515e-01 -2.0543444156646729e-01</leafValues></_>
    <_>
      <internalNodes>
        0 -1 19448 7.9559963196516037e-03</internalNodes>
      <leafValues>
        -1.3849523663520813e-01 7.9643189907073975e-01</leafValues></_>
    <_>
      <internalNodes>
        0 -1 117354 -5.8886185288429260e-02</internalNodes>
      <leafValues>
        -7.2289478778839111e-01 1.9597524404525757e-01</leafValues></_></weakClassifiers></stage0>
</opencv_storage>
